digraph Tree {
node [shape=box] ;
0 [label="checking_balance <= 1.5\ngini = 0.425\nsamples = 700\nvalue = [486, 214]\nclass = Yes"] ;
1 [label="months_loan_duration <= 22.5\ngini = 0.494\nsamples = 378\nvalue = [210, 168]\nclass = Yes"] ;
0 -> 1 [labeldistance=2.5, labelangle=45, headlabel="True"] ;
2 [label="credit_history <= 0.5\ngini = 0.449\nsamples = 209\nvalue = [138, 71]\nclass = Yes"] ;
1 -> 2 ;
3 [label="other_credit <= 0.5\ngini = 0.223\nsamples = 47\nvalue = [41, 6]\nclass = Yes"] ;
2 -> 3 ;
4 [label="months_loan_duration <= 16.5\ngini = 0.469\nsamples = 8\nvalue = [5, 3]\nclass = Yes"] ;
3 -> 4 ;
5 [label="gini = 0.0\nsamples = 4\nvalue = [4, 0]\nclass = Yes"] ;
4 -> 5 ;
6 [label="purpose <= 0.5\ngini = 0.375\nsamples = 4\nvalue = [1, 3]\nclass = No"] ;
4 -> 6 ;
7 [label="gini = 0.0\nsamples = 1\nvalue = [1, 0]\nclass = Yes"] ;
6 -> 7 ;
8 [label="gini = 0.0\nsamples = 3\nvalue = [0, 3]\nclass = No"] ;
6 -> 8 ;
9 [label="amount <= 4779.5\ngini = 0.142\nsamples = 39\nvalue = [36, 3]\nclass = Yes"] ;
3 -> 9 ;
10 [label="amount <= 775.5\ngini = 0.102\nsamples = 37\nvalue = [35, 2]\nclass = Yes"] ;
9 -> 10 ;
11 [label="age <= 36.0\ngini = 0.375\nsamples = 4\nvalue = [3, 1]\nclass = Yes"] ;
10 -> 11 ;
12 [label="gini = 0.0\nsamples = 1\nvalue = [0, 1]\nclass = No"] ;
11 -> 12 ;
13 [label="gini = 0.0\nsamples = 3\nvalue = [3, 0]\nclass = Yes"] ;
11 -> 13 ;
14 [label="employment_duration <= 0.5\ngini = 0.059\nsamples = 33\nvalue = [32, 1]\nclass = Yes"] ;
10 -> 14 ;
15 [label="percent_of_income <= 2.5\ngini = 0.198\nsamples = 9\nvalue = [8, 1]\nclass = Yes"] ;
14 -> 15 ;
16 [label="gini = 0.0\nsamples = 6\nvalue = [6, 0]\nclass = Yes"] ;
15 -> 16 ;
17 [label="years_at_residence <= 2.5\ngini = 0.444\nsamples = 3\nvalue = [2, 1]\nclass = Yes"] ;
15 -> 17 ;
18 [label="gini = 0.0\nsamples = 1\nvalue = [0, 1]\nclass = No"] ;
17 -> 18 ;
19 [label="gini = 0.0\nsamples = 2\nvalue = [2, 0]\nclass = Yes"] ;
17 -> 19 ;
20 [label="gini = 0.0\nsamples = 24\nvalue = [24, 0]\nclass = Yes"] ;
14 -> 20 ;
21 [label="employment_duration <= 3.5\ngini = 0.5\nsamples = 2\nvalue = [1, 1]\nclass = Yes"] ;
9 -> 21 ;
22 [label="gini = 0.0\nsamples = 1\nvalue = [0, 1]\nclass = No"] ;
21 -> 22 ;
23 [label="gini = 0.0\nsamples = 1\nvalue = [1, 0]\nclass = Yes"] ;
21 -> 23 ;
24 [label="credit_history <= 3.5\ngini = 0.48\nsamples = 162\nvalue = [97, 65]\nclass = Yes"] ;
2 -> 24 ;
25 [label="amount <= 1373.0\ngini = 0.468\nsamples = 150\nvalue = [94, 56]\nclass = Yes"] ;
24 -> 25 ;
26 [label="purpose <= 2.0\ngini = 0.5\nsamples = 66\nvalue = [34, 32]\nclass = Yes"] ;
25 -> 26 ;
27 [label="savings_balance <= 1.0\ngini = 0.401\nsamples = 18\nvalue = [5, 13]\nclass = No"] ;
26 -> 27 ;
28 [label="gini = 0.0\nsamples = 3\nvalue = [3, 0]\nclass = Yes"] ;
27 -> 28 ;
29 [label="amount <= 673.5\ngini = 0.231\nsamples = 15\nvalue = [2, 13]\nclass = No"] ;
27 -> 29 ;
30 [label="gini = 0.0\nsamples = 1\nvalue = [1, 0]\nclass = Yes"] ;
29 -> 30 ;
31 [label="age <= 22.5\ngini = 0.133\nsamples = 14\nvalue = [1, 13]\nclass = No"] ;
29 -> 31 ;
32 [label="gini = 0.0\nsamples = 1\nvalue = [1, 0]\nclass = Yes"] ;
31 -> 32 ;
33 [label="gini = 0.0\nsamples = 13\nvalue = [0, 13]\nclass = No"] ;
31 -> 33 ;
34 [label="checking_balance <= 0.5\ngini = 0.478\nsamples = 48\nvalue = [29, 19]\nclass = Yes"] ;
26 -> 34 ;
35 [label="amount <= 971.0\ngini = 0.365\nsamples = 25\nvalue = [19, 6]\nclass = Yes"] ;
34 -> 35 ;
36 [label="amount <= 854.0\ngini = 0.486\nsamples = 12\nvalue = [7, 5]\nclass = Yes"] ;
35 -> 36 ;
37 [label="purpose <= 4.5\ngini = 0.346\nsamples = 9\nvalue = [7, 2]\nclass = Yes"] ;
36 -> 37 ;
38 [label="age <= 65.0\ngini = 0.219\nsamples = 8\nvalue = [7, 1]\nclass = Yes"] ;
37 -> 38 ;
39 [label="gini = 0.0\nsamples = 6\nvalue = [6, 0]\nclass = Yes"] ;
38 -> 39 ;
40 [label="amount <= 778.0\ngini = 0.5\nsamples = 2\nvalue = [1, 1]\nclass = Yes"] ;
38 -> 40 ;
41 [label="gini = 0.0\nsamples = 1\nvalue = [0, 1]\nclass = No"] ;
40 -> 41 ;
42 [label="gini = 0.0\nsamples = 1\nvalue = [1, 0]\nclass = Yes"] ;
40 -> 42 ;
43 [label="gini = 0.0\nsamples = 1\nvalue = [0, 1]\nclass = No"] ;
37 -> 43 ;
44 [label="gini = 0.0\nsamples = 3\nvalue = [0, 3]\nclass = No"] ;
36 -> 44 ;
45 [label="age <= 24.5\ngini = 0.142\nsamples = 13\nvalue = [12, 1]\nclass = Yes"] ;
35 -> 45 ;
46 [label="percent_of_income <= 2.0\ngini = 0.5\nsamples = 2\nvalue = [1, 1]\nclass = Yes"] ;
45 -> 46 ;
47 [label="gini = 0.0\nsamples = 1\nvalue = [1, 0]\nclass = Yes"] ;
46 -> 47 ;
48 [label="gini = 0.0\nsamples = 1\nvalue = [0, 1]\nclass = No"] ;
46 -> 48 ;
49 [label="gini = 0.0\nsamples = 11\nvalue = [11, 0]\nclass = Yes"] ;
45 -> 49 ;
50 [label="months_loan_duration <= 16.5\ngini = 0.491\nsamples = 23\nvalue = [10, 13]\nclass = No"] ;
34 -> 50 ;
51 [label="phone <= 0.5\ngini = 0.499\nsamples = 19\nvalue = [10, 9]\nclass = Yes"] ;
50 -> 51 ;
52 [label="age <= 23.5\ngini = 0.48\nsamples = 15\nvalue = [6, 9]\nclass = No"] ;
51 -> 52 ;
53 [label="gini = 0.0\nsamples = 6\nvalue = [0, 6]\nclass = No"] ;
52 -> 53 ;
54 [label="amount <= 708.5\ngini = 0.444\nsamples = 9\nvalue = [6, 3]\nclass = Yes"] ;
52 -> 54 ;
55 [label="gini = 0.0\nsamples = 4\nvalue = [4, 0]\nclass = Yes"] ;
54 -> 55 ;
56 [label="percent_of_income <= 3.5\ngini = 0.48\nsamples = 5\nvalue = [2, 3]\nclass = No"] ;
54 -> 56 ;
57 [label="gini = 0.0\nsamples = 1\nvalue = [1, 0]\nclass = Yes"] ;
56 -> 57 ;
58 [label="months_loan_duration <= 13.5\ngini = 0.375\nsamples = 4\nvalue = [1, 3]\nclass = No"] ;
56 -> 58 ;
59 [label="gini = 0.0\nsamples = 2\nvalue = [0, 2]\nclass = No"] ;
58 -> 59 ;
60 [label="savings_balance <= 3.0\ngini = 0.5\nsamples = 2\nvalue = [1, 1]\nclass = Yes"] ;
58 -> 60 ;
61 [label="gini = 0.0\nsamples = 1\nvalue = [1, 0]\nclass = Yes"] ;
60 -> 61 ;
62 [label="gini = 0.0\nsamples = 1\nvalue = [0, 1]\nclass = No"] ;
60 -> 62 ;
63 [label="gini = 0.0\nsamples = 4\nvalue = [4, 0]\nclass = Yes"] ;
51 -> 63 ;
64 [label="gini = 0.0\nsamples = 4\nvalue = [0, 4]\nclass = No"] ;
50 -> 64 ;
65 [label="employment_duration <= 1.5\ngini = 0.408\nsamples = 84\nvalue = [60, 24]\nclass = Yes"] ;
25 -> 65 ;
66 [label="age <= 22.5\ngini = 0.25\nsamples = 41\nvalue = [35, 6]\nclass = Yes"] ;
65 -> 66 ;
67 [label="checking_balance <= 0.5\ngini = 0.444\nsamples = 3\nvalue = [1, 2]\nclass = No"] ;
66 -> 67 ;
68 [label="gini = 0.0\nsamples = 1\nvalue = [1, 0]\nclass = Yes"] ;
67 -> 68 ;
69 [label="gini = 0.0\nsamples = 2\nvalue = [0, 2]\nclass = No"] ;
67 -> 69 ;
70 [label="existing_loans_count <= 1.5\ngini = 0.188\nsamples = 38\nvalue = [34, 4]\nclass = Yes"] ;
66 -> 70 ;
71 [label="amount <= 3805.0\ngini = 0.062\nsamples = 31\nvalue = [30, 1]\nclass = Yes"] ;
70 -> 71 ;
72 [label="gini = 0.0\nsamples = 25\nvalue = [25, 0]\nclass = Yes"] ;
71 -> 72 ;
73 [label="years_at_residence <= 2.5\ngini = 0.278\nsamples = 6\nvalue = [5, 1]\nclass = Yes"] ;
71 -> 73 ;
74 [label="gini = 0.0\nsamples = 1\nvalue = [0, 1]\nclass = No"] ;
73 -> 74 ;
75 [label="gini = 0.0\nsamples = 5\nvalue = [5, 0]\nclass = Yes"] ;
73 -> 75 ;
76 [label="purpose <= 3.5\ngini = 0.49\nsamples = 7\nvalue = [4, 3]\nclass = Yes"] ;
70 -> 76 ;
77 [label="gini = 0.0\nsamples = 4\nvalue = [4, 0]\nclass = Yes"] ;
76 -> 77 ;
78 [label="gini = 0.0\nsamples = 3\nvalue = [0, 3]\nclass = No"] ;
76 -> 78 ;
79 [label="amount <= 7491.5\ngini = 0.487\nsamples = 43\nvalue = [25, 18]\nclass = Yes"] ;
65 -> 79 ;
80 [label="age <= 28.5\ngini = 0.46\nsamples = 39\nvalue = [25, 14]\nclass = Yes"] ;
79 -> 80 ;
81 [label="amount <= 3528.5\ngini = 0.499\nsamples = 21\nvalue = [10, 11]\nclass = No"] ;
80 -> 81 ;
82 [label="credit_history <= 1.5\ngini = 0.457\nsamples = 17\nvalue = [6, 11]\nclass = No"] ;
81 -> 82 ;
83 [label="months_loan_duration <= 10.0\ngini = 0.5\nsamples = 12\nvalue = [6, 6]\nclass = Yes"] ;
82 -> 83 ;
84 [label="gini = 0.0\nsamples = 2\nvalue = [0, 2]\nclass = No"] ;
83 -> 84 ;
85 [label="employment_duration <= 2.5\ngini = 0.48\nsamples = 10\nvalue = [6, 4]\nclass = Yes"] ;
83 -> 85 ;
86 [label="amount <= 1555.5\ngini = 0.375\nsamples = 8\nvalue = [6, 2]\nclass = Yes"] ;
85 -> 86 ;
87 [label="gini = 0.0\nsamples = 1\nvalue = [0, 1]\nclass = No"] ;
86 -> 87 ;
88 [label="savings_balance <= 3.5\ngini = 0.245\nsamples = 7\nvalue = [6, 1]\nclass = Yes"] ;
86 -> 88 ;
89 [label="gini = 0.0\nsamples = 6\nvalue = [6, 0]\nclass = Yes"] ;
88 -> 89 ;
90 [label="gini = 0.0\nsamples = 1\nvalue = [0, 1]\nclass = No"] ;
88 -> 90 ;
91 [label="gini = 0.0\nsamples = 2\nvalue = [0, 2]\nclass = No"] ;
85 -> 91 ;
92 [label="gini = 0.0\nsamples = 5\nvalue = [0, 5]\nclass = No"] ;
82 -> 92 ;
93 [label="gini = 0.0\nsamples = 4\nvalue = [4, 0]\nclass = Yes"] ;
81 -> 93 ;
94 [label="job <= 2.0\ngini = 0.278\nsamples = 18\nvalue = [15, 3]\nclass = Yes"] ;
80 -> 94 ;
95 [label="credit_history <= 2.5\ngini = 0.117\nsamples = 16\nvalue = [15, 1]\nclass = Yes"] ;
94 -> 95 ;
96 [label="gini = 0.0\nsamples = 14\nvalue = [14, 0]\nclass = Yes"] ;
95 -> 96 ;
97 [label="purpose <= 2.0\ngini = 0.5\nsamples = 2\nvalue = [1, 1]\nclass = Yes"] ;
95 -> 97 ;
98 [label="gini = 0.0\nsamples = 1\nvalue = [1, 0]\nclass = Yes"] ;
97 -> 98 ;
99 [label="gini = 0.0\nsamples = 1\nvalue = [0, 1]\nclass = No"] ;
97 -> 99 ;
100 [label="gini = 0.0\nsamples = 2\nvalue = [0, 2]\nclass = No"] ;
94 -> 100 ;
101 [label="gini = 0.0\nsamples = 4\nvalue = [0, 4]\nclass = No"] ;
79 -> 101 ;
102 [label="purpose <= 2.0\ngini = 0.375\nsamples = 12\nvalue = [3, 9]\nclass = No"] ;
24 -> 102 ;
103 [label="gini = 0.0\nsamples = 6\nvalue = [0, 6]\nclass = No"] ;
102 -> 103 ;
104 [label="employment_duration <= 1.0\ngini = 0.5\nsamples = 6\nvalue = [3, 3]\nclass = Yes"] ;
102 -> 104 ;
105 [label="other_credit <= 1.5\ngini = 0.375\nsamples = 4\nvalue = [1, 3]\nclass = No"] ;
104 -> 105 ;
106 [label="gini = 0.0\nsamples = 3\nvalue = [0, 3]\nclass = No"] ;
105 -> 106 ;
107 [label="gini = 0.0\nsamples = 1\nvalue = [1, 0]\nclass = Yes"] ;
105 -> 107 ;
108 [label="gini = 0.0\nsamples = 2\nvalue = [2, 0]\nclass = Yes"] ;
104 -> 108 ;
109 [label="savings_balance <= 2.5\ngini = 0.489\nsamples = 169\nvalue = [72, 97]\nclass = No"] ;
1 -> 109 ;
110 [label="months_loan_duration <= 47.5\ngini = 0.459\nsamples = 137\nvalue = [49, 88]\nclass = No"] ;
109 -> 110 ;
111 [label="age <= 62.0\ngini = 0.484\nsamples = 112\nvalue = [46, 66]\nclass = No"] ;
110 -> 111 ;
112 [label="housing <= 1.5\ngini = 0.475\nsamples = 108\nvalue = [42, 66]\nclass = No"] ;
111 -> 112 ;
113 [label="age <= 22.5\ngini = 0.493\nsamples = 86\nvalue = [38, 48]\nclass = No"] ;
112 -> 113 ;
114 [label="percent_of_income <= 1.5\ngini = 0.245\nsamples = 7\nvalue = [6, 1]\nclass = Yes"] ;
113 -> 114 ;
115 [label="gini = 0.0\nsamples = 1\nvalue = [0, 1]\nclass = No"] ;
114 -> 115 ;
116 [label="gini = 0.0\nsamples = 6\nvalue = [6, 0]\nclass = Yes"] ;
114 -> 116 ;
117 [label="percent_of_income <= 2.5\ngini = 0.482\nsamples = 79\nvalue = [32, 47]\nclass = No"] ;
113 -> 117 ;
118 [label="amount <= 11025.0\ngini = 0.49\nsamples = 28\nvalue = [16, 12]\nclass = Yes"] ;
117 -> 118 ;
119 [label="dependents <= 1.5\ngini = 0.461\nsamples = 25\nvalue = [16, 9]\nclass = Yes"] ;
118 -> 119 ;
120 [label="years_at_residence <= 3.5\ngini = 0.499\nsamples = 19\nvalue = [10, 9]\nclass = Yes"] ;
119 -> 120 ;
121 [label="credit_history <= 0.5\ngini = 0.426\nsamples = 13\nvalue = [9, 4]\nclass = Yes"] ;
120 -> 121 ;
122 [label="gini = 0.0\nsamples = 1\nvalue = [0, 1]\nclass = No"] ;
121 -> 122 ;
123 [label="months_loan_duration <= 25.5\ngini = 0.375\nsamples = 12\nvalue = [9, 3]\nclass = Yes"] ;
121 -> 123 ;
124 [label="amount <= 6637.5\ngini = 0.469\nsamples = 8\nvalue = [5, 3]\nclass = Yes"] ;
123 -> 124 ;
125 [label="employment_duration <= 3.0\ngini = 0.408\nsamples = 7\nvalue = [5, 2]\nclass = Yes"] ;
124 -> 125 ;
126 [label="amount <= 4418.5\ngini = 0.278\nsamples = 6\nvalue = [5, 1]\nclass = Yes"] ;
125 -> 126 ;
127 [label="gini = 0.0\nsamples = 4\nvalue = [4, 0]\nclass = Yes"] ;
126 -> 127 ;
128 [label="checking_balance <= 0.5\ngini = 0.5\nsamples = 2\nvalue = [1, 1]\nclass = Yes"] ;
126 -> 128 ;
129 [label="gini = 0.0\nsamples = 1\nvalue = [1, 0]\nclass = Yes"] ;
128 -> 129 ;
130 [label="gini = 0.0\nsamples = 1\nvalue = [0, 1]\nclass = No"] ;
128 -> 130 ;
131 [label="gini = 0.0\nsamples = 1\nvalue = [0, 1]\nclass = No"] ;
125 -> 131 ;
132 [label="gini = 0.0\nsamples = 1\nvalue = [0, 1]\nclass = No"] ;
124 -> 132 ;
133 [label="gini = 0.0\nsamples = 4\nvalue = [4, 0]\nclass = Yes"] ;
123 -> 133 ;
134 [label="months_loan_duration <= 25.5\ngini = 0.278\nsamples = 6\nvalue = [1, 5]\nclass = No"] ;
120 -> 134 ;
135 [label="gini = 0.0\nsamples = 1\nvalue = [1, 0]\nclass = Yes"] ;
134 -> 135 ;
136 [label="gini = 0.0\nsamples = 5\nvalue = [0, 5]\nclass = No"] ;
134 -> 136 ;
137 [label="gini = 0.0\nsamples = 6\nvalue = [6, 0]\nclass = Yes"] ;
119 -> 137 ;
138 [label="gini = 0.0\nsamples = 3\nvalue = [0, 3]\nclass = No"] ;
118 -> 138 ;
139 [label="years_at_residence <= 1.5\ngini = 0.431\nsamples = 51\nvalue = [16, 35]\nclass = No"] ;
117 -> 139 ;
140 [label="checking_balance <= 0.5\ngini = 0.408\nsamples = 7\nvalue = [5, 2]\nclass = Yes"] ;
139 -> 140 ;
141 [label="gini = 0.0\nsamples = 4\nvalue = [4, 0]\nclass = Yes"] ;
140 -> 141 ;
142 [label="amount <= 2025.0\ngini = 0.444\nsamples = 3\nvalue = [1, 2]\nclass = No"] ;
140 -> 142 ;
143 [label="gini = 0.0\nsamples = 1\nvalue = [1, 0]\nclass = Yes"] ;
142 -> 143 ;
144 [label="gini = 0.0\nsamples = 2\nvalue = [0, 2]\nclass = No"] ;
142 -> 144 ;
145 [label="employment_duration <= 2.5\ngini = 0.375\nsamples = 44\nvalue = [11, 33]\nclass = No"] ;
139 -> 145 ;
146 [label="credit_history <= 0.5\ngini = 0.204\nsamples = 26\nvalue = [3, 23]\nclass = No"] ;
145 -> 146 ;
147 [label="age <= 32.0\ngini = 0.444\nsamples = 6\nvalue = [2, 4]\nclass = No"] ;
146 -> 147 ;
148 [label="gini = 0.0\nsamples = 3\nvalue = [0, 3]\nclass = No"] ;
147 -> 148 ;
149 [label="amount <= 1782.0\ngini = 0.444\nsamples = 3\nvalue = [2, 1]\nclass = Yes"] ;
147 -> 149 ;
150 [label="gini = 0.0\nsamples = 1\nvalue = [0, 1]\nclass = No"] ;
149 -> 150 ;
151 [label="gini = 0.0\nsamples = 2\nvalue = [2, 0]\nclass = Yes"] ;
149 -> 151 ;
152 [label="amount <= 4113.0\ngini = 0.095\nsamples = 20\nvalue = [1, 19]\nclass = No"] ;
146 -> 152 ;
153 [label="gini = 0.0\nsamples = 16\nvalue = [0, 16]\nclass = No"] ;
152 -> 153 ;
154 [label="amount <= 4519.5\ngini = 0.375\nsamples = 4\nvalue = [1, 3]\nclass = No"] ;
152 -> 154 ;
155 [label="gini = 0.0\nsamples = 1\nvalue = [1, 0]\nclass = Yes"] ;
154 -> 155 ;
156 [label="gini = 0.0\nsamples = 3\nvalue = [0, 3]\nclass = No"] ;
154 -> 156 ;
157 [label="savings_balance <= 1.0\ngini = 0.494\nsamples = 18\nvalue = [8, 10]\nclass = No"] ;
145 -> 157 ;
158 [label="gini = 0.0\nsamples = 3\nvalue = [3, 0]\nclass = Yes"] ;
157 -> 158 ;
159 [label="purpose <= 1.5\ngini = 0.444\nsamples = 15\nvalue = [5, 10]\nclass = No"] ;
157 -> 159 ;
160 [label="gini = 0.0\nsamples = 7\nvalue = [0, 7]\nclass = No"] ;
159 -> 160 ;
161 [label="age <= 35.0\ngini = 0.469\nsamples = 8\nvalue = [5, 3]\nclass = Yes"] ;
159 -> 161 ;
162 [label="amount <= 3352.5\ngini = 0.375\nsamples = 4\nvalue = [1, 3]\nclass = No"] ;
161 -> 162 ;
163 [label="gini = 0.0\nsamples = 3\nvalue = [0, 3]\nclass = No"] ;
162 -> 163 ;
164 [label="gini = 0.0\nsamples = 1\nvalue = [1, 0]\nclass = Yes"] ;
162 -> 164 ;
165 [label="gini = 0.0\nsamples = 4\nvalue = [4, 0]\nclass = Yes"] ;
161 -> 165 ;
166 [label="amount <= 5233.5\ngini = 0.298\nsamples = 22\nvalue = [4, 18]\nclass = No"] ;
112 -> 166 ;
167 [label="savings_balance <= 1.0\ngini = 0.117\nsamples = 16\nvalue = [1, 15]\nclass = No"] ;
166 -> 167 ;
168 [label="credit_history <= 2.5\ngini = 0.375\nsamples = 4\nvalue = [1, 3]\nclass = No"] ;
167 -> 168 ;
169 [label="gini = 0.0\nsamples = 3\nvalue = [0, 3]\nclass = No"] ;
168 -> 169 ;
170 [label="gini = 0.0\nsamples = 1\nvalue = [1, 0]\nclass = Yes"] ;
168 -> 170 ;
171 [label="gini = 0.0\nsamples = 12\nvalue = [0, 12]\nclass = No"] ;
167 -> 171 ;
172 [label="amount <= 8415.0\ngini = 0.5\nsamples = 6\nvalue = [3, 3]\nclass = Yes"] ;
166 -> 172 ;
173 [label="gini = 0.0\nsamples = 3\nvalue = [3, 0]\nclass = Yes"] ;
172 -> 173 ;
174 [label="gini = 0.0\nsamples = 3\nvalue = [0, 3]\nclass = No"] ;
172 -> 174 ;
175 [label="gini = 0.0\nsamples = 4\nvalue = [4, 0]\nclass = Yes"] ;
111 -> 175 ;
176 [label="years_at_residence <= 1.5\ngini = 0.211\nsamples = 25\nvalue = [3, 22]\nclass = No"] ;
110 -> 176 ;
177 [label="gini = 0.0\nsamples = 1\nvalue = [1, 0]\nclass = Yes"] ;
176 -> 177 ;
178 [label="employment_duration <= 3.5\ngini = 0.153\nsamples = 24\nvalue = [2, 22]\nclass = No"] ;
176 -> 178 ;
179 [label="savings_balance <= 1.0\ngini = 0.083\nsamples = 23\nvalue = [1, 22]\nclass = No"] ;
178 -> 179 ;
180 [label="credit_history <= 2.5\ngini = 0.444\nsamples = 3\nvalue = [1, 2]\nclass = No"] ;
179 -> 180 ;
181 [label="gini = 0.0\nsamples = 2\nvalue = [0, 2]\nclass = No"] ;
180 -> 181 ;
182 [label="gini = 0.0\nsamples = 1\nvalue = [1, 0]\nclass = Yes"] ;
180 -> 182 ;
183 [label="gini = 0.0\nsamples = 20\nvalue = [0, 20]\nclass = No"] ;
179 -> 183 ;
184 [label="gini = 0.0\nsamples = 1\nvalue = [1, 0]\nclass = Yes"] ;
178 -> 184 ;
185 [label="checking_balance <= 0.5\ngini = 0.404\nsamples = 32\nvalue = [23, 9]\nclass = Yes"] ;
109 -> 185 ;
186 [label="amount <= 12296.5\ngini = 0.172\nsamples = 21\nvalue = [19, 2]\nclass = Yes"] ;
185 -> 186 ;
187 [label="savings_balance <= 3.5\ngini = 0.095\nsamples = 20\nvalue = [19, 1]\nclass = Yes"] ;
186 -> 187 ;
188 [label="amount <= 9359.5\ngini = 0.444\nsamples = 3\nvalue = [2, 1]\nclass = Yes"] ;
187 -> 188 ;
189 [label="gini = 0.0\nsamples = 2\nvalue = [2, 0]\nclass = Yes"] ;
188 -> 189 ;
190 [label="gini = 0.0\nsamples = 1\nvalue = [0, 1]\nclass = No"] ;
188 -> 190 ;
191 [label="gini = 0.0\nsamples = 17\nvalue = [17, 0]\nclass = Yes"] ;
187 -> 191 ;
192 [label="gini = 0.0\nsamples = 1\nvalue = [0, 1]\nclass = No"] ;
186 -> 192 ;
193 [label="age <= 48.0\ngini = 0.463\nsamples = 11\nvalue = [4, 7]\nclass = No"] ;
185 -> 193 ;
194 [label="percent_of_income <= 2.5\ngini = 0.219\nsamples = 8\nvalue = [1, 7]\nclass = No"] ;
193 -> 194 ;
195 [label="housing <= 1.5\ngini = 0.5\nsamples = 2\nvalue = [1, 1]\nclass = Yes"] ;
194 -> 195 ;
196 [label="gini = 0.0\nsamples = 1\nvalue = [0, 1]\nclass = No"] ;
195 -> 196 ;
197 [label="gini = 0.0\nsamples = 1\nvalue = [1, 0]\nclass = Yes"] ;
195 -> 197 ;
198 [label="gini = 0.0\nsamples = 6\nvalue = [0, 6]\nclass = No"] ;
194 -> 198 ;
199 [label="gini = 0.0\nsamples = 3\nvalue = [3, 0]\nclass = Yes"] ;
193 -> 199 ;
200 [label="purpose <= 0.5\ngini = 0.245\nsamples = 322\nvalue = [276, 46]\nclass = Yes"] ;
0 -> 200 [labeldistance=2.5, labelangle=-45, headlabel="False"] ;
201 [label="amount <= 1825.5\ngini = 0.452\nsamples = 29\nvalue = [19, 10]\nclass = Yes"] ;
200 -> 201 ;
202 [label="gini = 0.0\nsamples = 9\nvalue = [9, 0]\nclass = Yes"] ;
201 -> 202 ;
203 [label="credit_history <= 0.5\ngini = 0.5\nsamples = 20\nvalue = [10, 10]\nclass = Yes"] ;
201 -> 203 ;
204 [label="months_loan_duration <= 18.0\ngini = 0.32\nsamples = 5\nvalue = [4, 1]\nclass = Yes"] ;
203 -> 204 ;
205 [label="gini = 0.0\nsamples = 1\nvalue = [0, 1]\nclass = No"] ;
204 -> 205 ;
206 [label="gini = 0.0\nsamples = 4\nvalue = [4, 0]\nclass = Yes"] ;
204 -> 206 ;
207 [label="other_credit <= 0.5\ngini = 0.48\nsamples = 15\nvalue = [6, 9]\nclass = No"] ;
203 -> 207 ;
208 [label="gini = 0.0\nsamples = 4\nvalue = [0, 4]\nclass = No"] ;
207 -> 208 ;
209 [label="years_at_residence <= 2.5\ngini = 0.496\nsamples = 11\nvalue = [6, 5]\nclass = Yes"] ;
207 -> 209 ;
210 [label="months_loan_duration <= 21.0\ngini = 0.375\nsamples = 8\nvalue = [6, 2]\nclass = Yes"] ;
209 -> 210 ;
211 [label="months_loan_duration <= 14.5\ngini = 0.444\nsamples = 3\nvalue = [1, 2]\nclass = No"] ;
210 -> 211 ;
212 [label="gini = 0.0\nsamples = 1\nvalue = [1, 0]\nclass = Yes"] ;
211 -> 212 ;
213 [label="gini = 0.0\nsamples = 2\nvalue = [0, 2]\nclass = No"] ;
211 -> 213 ;
214 [label="gini = 0.0\nsamples = 5\nvalue = [5, 0]\nclass = Yes"] ;
210 -> 214 ;
215 [label="gini = 0.0\nsamples = 3\nvalue = [0, 3]\nclass = No"] ;
209 -> 215 ;
216 [label="age <= 19.5\ngini = 0.216\nsamples = 293\nvalue = [257, 36]\nclass = Yes"] ;
200 -> 216 ;
217 [label="gini = 0.0\nsamples = 1\nvalue = [0, 1]\nclass = No"] ;
216 -> 217 ;
218 [label="age <= 67.0\ngini = 0.211\nsamples = 292\nvalue = [257, 35]\nclass = Yes"] ;
216 -> 218 ;
219 [label="amount <= 10924.5\ngini = 0.206\nsamples = 291\nvalue = [257, 34]\nclass = Yes"] ;
218 -> 219 ;
220 [label="checking_balance <= 2.5\ngini = 0.194\nsamples = 284\nvalue = [253, 31]\nclass = Yes"] ;
219 -> 220 ;
221 [label="dependents <= 1.5\ngini = 0.357\nsamples = 43\nvalue = [33, 10]\nclass = Yes"] ;
220 -> 221 ;
222 [label="age <= 39.0\ngini = 0.278\nsamples = 36\nvalue = [30, 6]\nclass = Yes"] ;
221 -> 222 ;
223 [label="job <= 2.5\ngini = 0.397\nsamples = 22\nvalue = [16, 6]\nclass = Yes"] ;
222 -> 223 ;
224 [label="percent_of_income <= 3.5\ngini = 0.32\nsamples = 20\nvalue = [16, 4]\nclass = Yes"] ;
223 -> 224 ;
225 [label="gini = 0.0\nsamples = 10\nvalue = [10, 0]\nclass = Yes"] ;
224 -> 225 ;
226 [label="age <= 25.5\ngini = 0.48\nsamples = 10\nvalue = [6, 4]\nclass = Yes"] ;
224 -> 226 ;
227 [label="gini = 0.0\nsamples = 4\nvalue = [4, 0]\nclass = Yes"] ;
226 -> 227 ;
228 [label="amount <= 4341.5\ngini = 0.444\nsamples = 6\nvalue = [2, 4]\nclass = No"] ;
226 -> 228 ;
229 [label="savings_balance <= 3.0\ngini = 0.32\nsamples = 5\nvalue = [1, 4]\nclass = No"] ;
228 -> 229 ;
230 [label="gini = 0.0\nsamples = 4\nvalue = [0, 4]\nclass = No"] ;
229 -> 230 ;
231 [label="gini = 0.0\nsamples = 1\nvalue = [1, 0]\nclass = Yes"] ;
229 -> 231 ;
232 [label="gini = 0.0\nsamples = 1\nvalue = [1, 0]\nclass = Yes"] ;
228 -> 232 ;
233 [label="gini = 0.0\nsamples = 2\nvalue = [0, 2]\nclass = No"] ;
223 -> 233 ;
234 [label="gini = 0.0\nsamples = 14\nvalue = [14, 0]\nclass = Yes"] ;
222 -> 234 ;
235 [label="employment_duration <= 1.5\ngini = 0.49\nsamples = 7\nvalue = [3, 4]\nclass = No"] ;
221 -> 235 ;
236 [label="gini = 0.0\nsamples = 3\nvalue = [0, 3]\nclass = No"] ;
235 -> 236 ;
237 [label="age <= 47.0\ngini = 0.375\nsamples = 4\nvalue = [3, 1]\nclass = Yes"] ;
235 -> 237 ;
238 [label="gini = 0.0\nsamples = 3\nvalue = [3, 0]\nclass = Yes"] ;
237 -> 238 ;
239 [label="gini = 0.0\nsamples = 1\nvalue = [0, 1]\nclass = No"] ;
237 -> 239 ;
240 [label="credit_history <= 0.5\ngini = 0.159\nsamples = 241\nvalue = [220, 21]\nclass = Yes"] ;
220 -> 240 ;
241 [label="other_credit <= 0.5\ngini = 0.06\nsamples = 97\nvalue = [94, 3]\nclass = Yes"] ;
240 -> 241 ;
242 [label="amount <= 2139.0\ngini = 0.408\nsamples = 7\nvalue = [5, 2]\nclass = Yes"] ;
241 -> 242 ;
243 [label="months_loan_duration <= 9.0\ngini = 0.444\nsamples = 3\nvalue = [1, 2]\nclass = No"] ;
242 -> 243 ;
244 [label="gini = 0.0\nsamples = 1\nvalue = [1, 0]\nclass = Yes"] ;
243 -> 244 ;
245 [label="gini = 0.0\nsamples = 2\nvalue = [0, 2]\nclass = No"] ;
243 -> 245 ;
246 [label="gini = 0.0\nsamples = 4\nvalue = [4, 0]\nclass = Yes"] ;
242 -> 246 ;
247 [label="amount <= 7725.5\ngini = 0.022\nsamples = 90\nvalue = [89, 1]\nclass = Yes"] ;
241 -> 247 ;
248 [label="gini = 0.0\nsamples = 86\nvalue = [86, 0]\nclass = Yes"] ;
247 -> 248 ;
249 [label="amount <= 8356.5\ngini = 0.375\nsamples = 4\nvalue = [3, 1]\nclass = Yes"] ;
247 -> 249 ;
250 [label="gini = 0.0\nsamples = 1\nvalue = [0, 1]\nclass = No"] ;
249 -> 250 ;
251 [label="gini = 0.0\nsamples = 3\nvalue = [3, 0]\nclass = Yes"] ;
249 -> 251 ;
252 [label="purpose <= 4.5\ngini = 0.219\nsamples = 144\nvalue = [126, 18]\nclass = Yes"] ;
240 -> 252 ;
253 [label="amount <= 3608.0\ngini = 0.202\nsamples = 140\nvalue = [124, 16]\nclass = Yes"] ;
252 -> 253 ;
254 [label="months_loan_duration <= 25.5\ngini = 0.164\nsamples = 111\nvalue = [101, 10]\nclass = Yes"] ;
253 -> 254 ;
255 [label="job <= 2.5\ngini = 0.128\nsamples = 102\nvalue = [95, 7]\nclass = Yes"] ;
254 -> 255 ;
256 [label="amount <= 475.5\ngini = 0.048\nsamples = 81\nvalue = [79, 2]\nclass = Yes"] ;
255 -> 256 ;
257 [label="gini = 0.0\nsamples = 1\nvalue = [0, 1]\nclass = No"] ;
256 -> 257 ;
258 [label="other_credit <= 0.5\ngini = 0.025\nsamples = 80\nvalue = [79, 1]\nclass = Yes"] ;
256 -> 258 ;
259 [label="months_loan_duration <= 22.5\ngini = 0.165\nsamples = 11\nvalue = [10, 1]\nclass = Yes"] ;
258 -> 259 ;
260 [label="gini = 0.0\nsamples = 9\nvalue = [9, 0]\nclass = Yes"] ;
259 -> 260 ;
261 [label="phone <= 0.5\ngini = 0.5\nsamples = 2\nvalue = [1, 1]\nclass = Yes"] ;
259 -> 261 ;
262 [label="gini = 0.0\nsamples = 1\nvalue = [1, 0]\nclass = Yes"] ;
261 -> 262 ;
263 [label="gini = 0.0\nsamples = 1\nvalue = [0, 1]\nclass = No"] ;
261 -> 263 ;
264 [label="gini = 0.0\nsamples = 69\nvalue = [69, 0]\nclass = Yes"] ;
258 -> 264 ;
265 [label="years_at_residence <= 1.5\ngini = 0.363\nsamples = 21\nvalue = [16, 5]\nclass = Yes"] ;
255 -> 265 ;
266 [label="gini = 0.0\nsamples = 1\nvalue = [0, 1]\nclass = No"] ;
265 -> 266 ;
267 [label="years_at_residence <= 3.5\ngini = 0.32\nsamples = 20\nvalue = [16, 4]\nclass = Yes"] ;
265 -> 267 ;
268 [label="other_credit <= 0.5\ngini = 0.153\nsamples = 12\nvalue = [11, 1]\nclass = Yes"] ;
267 -> 268 ;
269 [label="months_loan_duration <= 12.5\ngini = 0.5\nsamples = 2\nvalue = [1, 1]\nclass = Yes"] ;
268 -> 269 ;
270 [label="gini = 0.0\nsamples = 1\nvalue = [0, 1]\nclass = No"] ;
269 -> 270 ;
271 [label="gini = 0.0\nsamples = 1\nvalue = [1, 0]\nclass = Yes"] ;
269 -> 271 ;
272 [label="gini = 0.0\nsamples = 10\nvalue = [10, 0]\nclass = Yes"] ;
268 -> 272 ;
273 [label="employment_duration <= 0.5\ngini = 0.469\nsamples = 8\nvalue = [5, 3]\nclass = Yes"] ;
267 -> 273 ;
274 [label="gini = 0.0\nsamples = 2\nvalue = [0, 2]\nclass = No"] ;
273 -> 274 ;
275 [label="amount <= 2522.5\ngini = 0.278\nsamples = 6\nvalue = [5, 1]\nclass = Yes"] ;
273 -> 275 ;
276 [label="gini = 0.0\nsamples = 5\nvalue = [5, 0]\nclass = Yes"] ;
275 -> 276 ;
277 [label="gini = 0.0\nsamples = 1\nvalue = [0, 1]\nclass = No"] ;
275 -> 277 ;
278 [label="employment_duration <= 1.5\ngini = 0.444\nsamples = 9\nvalue = [6, 3]\nclass = Yes"] ;
254 -> 278 ;
279 [label="savings_balance <= 1.5\ngini = 0.375\nsamples = 4\nvalue = [1, 3]\nclass = No"] ;
278 -> 279 ;
280 [label="gini = 0.0\nsamples = 1\nvalue = [1, 0]\nclass = Yes"] ;
279 -> 280 ;
281 [label="gini = 0.0\nsamples = 3\nvalue = [0, 3]\nclass = No"] ;
279 -> 281 ;
282 [label="gini = 0.0\nsamples = 5\nvalue = [5, 0]\nclass = Yes"] ;
278 -> 282 ;
283 [label="amount <= 6128.0\ngini = 0.328\nsamples = 29\nvalue = [23, 6]\nclass = Yes"] ;
253 -> 283 ;
284 [label="existing_loans_count <= 1.5\ngini = 0.457\nsamples = 17\nvalue = [11, 6]\nclass = Yes"] ;
283 -> 284 ;
285 [label="months_loan_duration <= 7.5\ngini = 0.298\nsamples = 11\nvalue = [9, 2]\nclass = Yes"] ;
284 -> 285 ;
286 [label="gini = 0.0\nsamples = 1\nvalue = [0, 1]\nclass = No"] ;
285 -> 286 ;
287 [label="savings_balance <= 1.0\ngini = 0.18\nsamples = 10\nvalue = [9, 1]\nclass = Yes"] ;
285 -> 287 ;
288 [label="gini = 0.0\nsamples = 1\nvalue = [0, 1]\nclass = No"] ;
287 -> 288 ;
289 [label="gini = 0.0\nsamples = 9\nvalue = [9, 0]\nclass = Yes"] ;
287 -> 289 ;
290 [label="credit_history <= 2.5\ngini = 0.444\nsamples = 6\nvalue = [2, 4]\nclass = No"] ;
284 -> 290 ;
291 [label="gini = 0.0\nsamples = 3\nvalue = [0, 3]\nclass = No"] ;
290 -> 291 ;
292 [label="months_loan_duration <= 30.0\ngini = 0.444\nsamples = 3\nvalue = [2, 1]\nclass = Yes"] ;
290 -> 292 ;
293 [label="gini = 0.0\nsamples = 2\nvalue = [2, 0]\nclass = Yes"] ;
292 -> 293 ;
294 [label="gini = 0.0\nsamples = 1\nvalue = [0, 1]\nclass = No"] ;
292 -> 294 ;
295 [label="gini = 0.0\nsamples = 12\nvalue = [12, 0]\nclass = Yes"] ;
283 -> 295 ;
296 [label="employment_duration <= 1.5\ngini = 0.5\nsamples = 4\nvalue = [2, 2]\nclass = Yes"] ;
252 -> 296 ;
297 [label="gini = 0.0\nsamples = 2\nvalue = [2, 0]\nclass = Yes"] ;
296 -> 297 ;
298 [label="gini = 0.0\nsamples = 2\nvalue = [0, 2]\nclass = No"] ;
296 -> 298 ;
299 [label="amount <= 12714.5\ngini = 0.49\nsamples = 7\nvalue = [4, 3]\nclass = Yes"] ;
219 -> 299 ;
300 [label="existing_loans_count <= 1.5\ngini = 0.375\nsamples = 4\nvalue = [1, 3]\nclass = No"] ;
299 -> 300 ;
301 [label="employment_duration <= 1.5\ngini = 0.5\nsamples = 2\nvalue = [1, 1]\nclass = Yes"] ;
300 -> 301 ;
302 [label="gini = 0.0\nsamples = 1\nvalue = [1, 0]\nclass = Yes"] ;
301 -> 302 ;
303 [label="gini = 0.0\nsamples = 1\nvalue = [0, 1]\nclass = No"] ;
301 -> 303 ;
304 [label="gini = 0.0\nsamples = 2\nvalue = [0, 2]\nclass = No"] ;
300 -> 304 ;
305 [label="gini = 0.0\nsamples = 3\nvalue = [3, 0]\nclass = Yes"] ;
299 -> 305 ;
306 [label="gini = 0.0\nsamples = 1\nvalue = [0, 1]\nclass = No"] ;
218 -> 306 ;
}